#include "stm32fxxx_hal.h"

#define N 35

// band pass - 0 - 5000   Fs = 22k   fpass=5000 fstop = 6000
int16_t B1[N+1] = {
      200,    400,   -315,   -229,    301,    375,   -439,   -507,    599,
      704,   -840,  -1005,   1233,   1547,  -2038,  -2898,   4888,  14739,
    14739,   4888,  -2898,  -2038,   1547,   1233,  -1005,   -840,    704,
      599,   -507,   -439,    375,    301,   -229,   -315,    400,    200
};

// band pass - 100 - 4000  kaiser Fs = 13k  s=0.5
int16_t B2[N+1] = {
   -46,   -145,  -1037,   -270,    155,  -1087,   -654,    476,   -946,
    -1241,    771,   -475,  -2180,    997,    851,  -4480,   1120,  16092,
    16092,   1120,  -4480,    851,    997,  -2180,   -475,    771,  -1241,
     -946,    476,   -654,  -1087,    155,   -270,  -1037,   -145,    -46
};


// band pass - 300 - 4000  kaiser Fs = 13k s=0.5
int16_t B3[N+1] = {
        52,   -125,  -1100,   -416,    -74,  -1404,  -1056,     -6,  -1509,
    -1881,     66,  -1246,  -3011,    125,    -61,  -5433,    158,  15151,
    15151,    158,  -5433,    -61,    125,  -3011,  -1246,     66,  -1881,
    -1509,     -6,  -1056,  -1404,    -74,   -416,  -1100,   -125,     52
};

// band pass - 200 - 3300  kaiser Fs = 13k  s=0.5
int16_t B4[N+1] = {
    -375,    -46,   -938,  -1367,   -407,    -42,  -1279,  -1742,   -302,
      132,  -1774,  -2329,    198,    866,  -3042,  -4312,   3907,  14582,
    14582,   3907,  -4312,  -3042,    866,    198,  -2329,  -1774,    132,
     -302,  -1742,  -1279,    -42,   -407,  -1367,   -938,    -46,   -375
};

// band pass - 0 - 64000  kaiser Fs = 13k  s=0.5
int16_t B5[N+1] = {
     -376,    423,   -475,    533,   -598,    673,   -759,    858,   -977,
     1121,  -1300,   1530,  -1838,   2279,  -2962,   4181,  -7007,  21079,
    21079,  -7007,   4181,  -2962,   2279,  -1838,   1530,  -1300,   1121,
     -977,    858,   -759,    673,   -598,    533,   -475,    423,   -376
};


/*
#define N 40

// band pass - 150 - 4000  kaiser Fs = 13k
int16_t B1[N+1] = {
       -18,   -252,   -213,     11,   -370,   -501,     33,   -374,   -930,
      -34,   -152,  -1447,   -332,    435,  -1951,  -1156,   1768,  -2320,
    -4193,   9039,  19559,   9039,  -4193,  -2320,   1768,  -1156,  -1951,
      435,   -332,  -1447,   -152,    -34,   -930,   -374,     33,   -501,
     -370,     11,   -213,   -252,    -18
};

// band pass - 150 - 4000  kaiser Fs = 14k
int16_t B2[N+1] = {
     -209,    -73,    -27,   -368,   -350,     41,   -312,   -800,   -157,
       69,  -1067,   -901,    494,   -582,  -2130,    200,   1282,  -3327,
    -2931,   9450,  18044,   9450,  -2931,  -3327,   1282,    200,  -2130,
     -582,    494,   -901,  -1067,     69,   -157,   -800,   -312,     41,
     -350,   -368,    -27,    -73,   -209
};

// band pass - 150 - 4000  kaiser Fs = 15k
int16_t B3[N+1] = {
        -9,    -72,   -322,   -233,     40,   -257,   -673,   -236,    143,
     -664,  -1092,     46,    276,  -1481,  -1472,   1066,    389,  -3813,
    -1700,   9594,  16656,   9594,  -1700,  -3813,    389,   1066,  -1472,
    -1481,    276,     46,  -1092,   -664,    143,   -236,   -673,   -257,
       40,   -233,   -322,    -72,     -9
};

// band pass - 150 - 3500  kaiser Fs = 14k
int16_t B4[N+1] = {
  -103,   -269,   -163,     19,   -232,   -589,   -309,    106,   -390,
    -1067,   -469,    383,   -543,  -1847,   -607,   1284,   -656,  -4031,
     -686,   9628,  15566,   9628,   -686,  -4031,   -656,   1284,   -607,
    -1847,   -543,    383,   -469,  -1067,   -390,    106,   -309,   -589,
     -232,     19,   -163,   -269,   -103
};

*/
/*
#define N 80

// xz filter
int16_t B1[N+1] =  {
      -10,      9,    -13,     18,    -24,     31,    -39,     50,    -62,
       75,    -91,    108,   -128,    150,   -173,    199,   -227,    257,
     -288,    322,   -356,    393,   -430,    468,   -506,    545,   -583,
      621,   -659,    694,   -729,    761,   -791,    818,   -842,    863,
     -881,    895,   -905,    911,  31855,    911,   -905,    895,   -881,
      863,   -842,    818,   -791,    761,   -729,    694,   -659,    621,
     -583,    545,   -506,    468,   -430,    393,   -356,    322,   -288,
      257,   -227,    199,   -173,    150,   -128,    108,    -91,     75,
      -62,     50,    -39,     31,    -24,     18,    -13,      9,    -10
};

// low pass - pass 5000 stop 6000 Fs = 13k
int16_t B2[N+1] = {
        0,      0,      1,     -2,      3,     -4,      3,     -1,     -4,
       12,    -20,     26,    -26,     16,      5,    -35,     69,    -97,
      106,    -86,     31,     57,   -162,    259,   -315,    298,   -187,
      -16,    287,   -571,    790,   -862,    711,   -291,   -399,   1310,
    -2343,   3366,  -4232,   4813,  27751,   4813,  -4232,   3366,  -2343,
     1310,   -399,   -291,    711,   -862,    790,   -571,    287,    -16,
     -187,    298,   -315,    259,   -162,     57,     31,    -86,    106,
      -97,     69,    -35,      5,     16,    -26,     26,    -20,     12,
       -4,     -1,      3,     -4,      3,     -2,      1,      0,      0
};

// low pass - pass 3000 stop 4000 Fs = 13k
int16_t B3[N+1]  = {
        0,      0,      1,     -1,     -3,      2,      5,     -6,     -8,
       13,      9,    -25,     -8,     42,      0,    -64,     19,     90,
      -54,   -114,    110,    130,   -191,   -126,    297,     88,   -429,
        1,    580,   -163,   -741,    432,    900,   -865,  -1044,   1605,
     1159,  -3173,  -1234,  10326,  17643,  10326,  -1234,  -3173,   1159,
     1605,  -1044,   -865,    900,    432,   -741,   -163,    580,      1,
     -429,     88,    297,   -126,   -191,    130,    110,   -114,    -54,
       90,     19,    -64,      0,     42,     -8,    -25,      9,     13,
       -8,     -6,      5,      2,     -3,     -1,      1,      0,      0
};

// low pass - pass 2000 stop 3000 Fs = 13k
int16_t B4[N+1]  = {
        0,      0,      1,      1,     -1,     -4,     -2,      7,      9,
       -3,    -20,    -12,     21,     39,      1,    -59,    -52,     43,
      114,     34,   -134,   -161,     53,    267,    149,   -243,   -403,
       -3,    543,    452,   -365,   -920,   -265,   1070,   1298,   -463,
    -2477,  -1580,   3418,   9727,  12607,   9727,   3418,  -1580,  -2477,
     -463,   1298,   1070,   -265,   -920,   -365,    452,    543,     -3,
     -403,   -243,    149,    267,     53,   -161,   -134,     34,    114,
       43,    -52,    -59,      1,     39,     21,    -12,    -20,     -3,
        9,      7,     -2,     -4,     -1,      1,      1,      0,      0
};


// band pass - 100 - 4000  kaiser Fs = 13k
int16_t B5[N+1] = {
        0,   -245,   -503,    -85,   -146,   -576,   -227,    -55,   -583,
     -409,      0,   -515,   -604,    -11,   -379,   -777,   -110,   -196,
     -886,   -304,      0,   -893,   -586,    161,   -766,   -932,    233,
     -478,  -1307,    150,      0,  -1666,   -183,    745,  -1963,  -1017,
     2127,  -2159,  -4039,   9431,  20049,   9431,  -4039,  -2159,   2127,
    -1017,  -1963,    745,   -183,  -1666,      0,    150,  -1307,   -478,
      233,   -932,   -766,    161,   -586,   -893,      0,   -304,   -886,
     -196,   -110,   -777,   -379,    -11,   -604,   -515,      0,   -409,
     -583,    -55,   -227,   -576,   -146,    -85,   -503,   -245,      0
};

// band pass - 80 - 7000  kaiser Fs = 15k
int16_t B6[N+1] = {
 -242,   -398,     -1,   -515,    -97,   -266,   -446,     18,   -582,
      -90,   -288,   -500,     53,   -663,    -70,   -307,   -564,    115,
     -767,    -29,   -324,   -650,    223,   -918,     50,   -337,   -781,
      428,  -1178,    218,   -347,  -1038,    906,  -1786,    684,   -353,
    -1908,   3001,  -5388,   5868,  26252,   5868,  -5388,   3001,  -1908,
     -353,    684,  -1786,    906,  -1038,   -347,    218,  -1178,    428,
     -781,   -337,     50,   -918,    223,   -650,   -324,    -29,   -767,
      115,   -564,   -307,    -70,   -663,     53,   -500,   -288,    -90,
     -582,     18,   -446,   -266,    -97,   -515,     -1,   -398,   -242
};

// band pass - 80 - 5000  kaiser Fs = 15k
int16_t B7[N+1] = {
    -26,   -239,   -465,    -21,   -253,   -499,    -12,   -266,   -537,
        1,   -279,   -579,     21,   -290,   -626,     49,   -301,   -682,
       89,   -310,   -750,    144,   -319,   -837,    225,   -326,   -957,
      348,   -332,  -1137,    548,   -337,  -1444,    925,   -340,  -2114,
     1874,   -343,  -4777,   8526,  21108,   8526,  -4777,   -343,   1874,
    -2114,   -340,    925,  -1444,   -337,    548,  -1137,   -332,    348,
     -957,   -326,    225,   -837,   -319,    144,   -750,   -310,     89,
     -682,   -301,     49,   -626,   -290,     21,   -579,   -279,      1,
     -537,   -266,    -12,   -499,   -253,    -21,   -465,   -239,    -26
};


// band pass - 100 - 5000  kaiser Fs = 15k
int16_t B8[N+1] = {
        -31,   -247,   -476,    -35,   -270,   -520,    -36,   -292,   -566,
      -31,   -314,   -617,    -20,   -334,   -673,      0,   -353,   -736,
       32,   -370,   -812,     81,   -385,   -905,    155,   -398,  -1031,
      272,   -409,  -1215,    469,   -418,  -1526,    843,   -424,  -2198,
     1789,   -428,  -4863,   8441,  21023,   8441,  -4863,   -428,   1789,
    -2198,   -424,    843,  -1526,   -418,    469,  -1215,   -409,    272,
    -1031,   -398,    155,   -905,   -385,     81,   -812,   -370,     32,
     -736,   -353,      0,   -673,   -334,    -20,   -617,   -314,    -31,
     -566,   -292,    -36,   -520,   -270,    -35,   -476,   -247,    -31
};


// band pass - 80 - 4000  kaiser Fs = 15k
int16_t B9[N+1] = {
        -449,    -95,    -55,   -450,   -418,    -16,   -147,   -557,   -339,
       43,   -283,   -632,   -216,     62,   -456,   -653,    -56,     21,
     -656,   -601,    125,   -101,   -866,   -452,    311,   -331,  -1066,
     -170,    482,   -721,  -1237,    335,    620,  -1445,  -1362,   1452,
      709,  -3640,  -1428,   9984,  17059,   9984,  -1428,  -3640,    709,
     1452,  -1362,  -1445,    620,    335,  -1237,   -721,    482,   -170,
    -1066,   -331,    311,   -452,   -866,   -101,    125,   -601,   -656,
       21,    -56,   -653,   -456,     62,   -216,   -632,   -283,     43,
     -339,   -557,   -147,    -16,   -418,   -450,    -55,    -95,   -449
};

*/

